Point,Lat,Lon,Weight
139171,21.553284,-158.250915,0.0001
139172,21.570457,-158.250504,0.001
139678,21.501381,-158.233658,0.0008
139679,21.518555,-158.233261,0.0004
139680,21.535721,-158.232849,0.0007
139681,21.55291,-158.232437,0.0006
139682,21.570091,-158.23204,0.0011
140186,21.466667,-158.216034,0.002
140187,21.483841,-158.215622,0.0005
140188,21.500999,-158.21521,0.0002
140189,21.518181,-158.214798,0.0005
140190,21.535347,-158.214386,0.0013
140191,21.552528,-158.213974,0.0005
140192,21.569702,-158.213562,0.0004
140193,21.586891,-158.21315,0.0005
140696,21.449112,-158.197998,0.0013
140697,21.466293,-158.197586,0.0024
140698,21.483452,-158.197174,0.0021
140699,21.500618,-158.196747,0.0001
140700,21.517792,-158.196335,0.0002
140701,21.534958,-158.195923,0.0002
140702,21.552147,-158.195511,0.0002
140703,21.569321,-158.195084,0.0013
140704,21.586502,-158.194672,0.0008
141205,21.414406,-158.180389,0.0015
141206,21.431557,-158.179977,0.0021
141207,21.44873,-158.17955,0.0037
141208,21.465889,-158.179138,0.0013
141210,21.500237,-158.178299,0.0002
141213,21.551758,-158.177032,0.0001
141214,21.568916,-158.176621,0.002
141716,21.396843,-158.162384,0.0011
141717,21.414009,-158.161957,0.0043
141718,21.431168,-158.161545,0.0047
141719,21.448341,-158.161118,0.004
141720,21.4655,-158.16069,0.0029
141721,21.482674,-158.160263,0.0001
141724,21.534187,-158.158997,0.0001
141725,21.551361,-158.158569,0.0008
141726,21.568535,-158.158142,0.0037
141727,21.585716,-158.157715,0.0004
142228,21.379295,-158.144379,0.0018
142229,21.396446,-158.143951,0.0024
142230,21.413605,-158.143524,0.0037
142231,21.430763,-158.143097,0.0048
142232,21.447952,-158.14267,0.0047
142233,21.465111,-158.142242,0.0023
142237,21.533791,-158.140533,0.0001
142238,21.550964,-158.140106,0.0019
142239,21.568138,-158.139679,0.0039
142240,21.58532,-158.139237,0.0005
142738,21.327438,-158.127243,0.0007
142739,21.344589,-158.126816,0.0024
142740,21.361748,-158.126388,0.0009
142741,21.378899,-158.125961,0.0004
142742,21.396065,-158.125519,0.0007
142743,21.413208,-158.125092,0.0003
142744,21.430374,-158.124664,0.0037
142745,21.44754,-158.124237,0.0041
142746,21.464706,-158.123795,0.0012
142750,21.533386,-158.12207,0.0002
142751,21.550568,-158.121628,0.0023
142752,21.567734,-158.121201,0.0029
142753,21.584915,-158.120773,0.0005
143250,21.292732,-158.109711,0.0007
143251,21.309875,-158.109268,0.004
143252,21.327026,-158.108841,0.0036
143253,21.344185,-158.108398,0.0036
143254,21.361336,-158.107971,0.0009
143255,21.378494,-158.107529,0.0004
143256,21.395653,-158.107101,0.0003
143257,21.412811,-158.106659,0.0001
143258,21.42997,-158.106232,0.0001
143261,21.481468,-158.104919,0.002
143262,21.498634,-158.104477,0.0041
143263,21.5158,-158.104034,0.0008
143264,21.532982,-158.103607,0.0003
143265,21.550148,-158.103165,0.0031
143266,21.567345,-158.102722,0.0045
143267,21.584503,-158.102295,0.0033
143268,21.6017,-158.101852,0.0018
143764,21.29232,-158.091309,0.001
143765,21.309471,-158.090866,0.0047
143766,21.326614,-158.090424,0.0046
143767,21.343765,-158.089981,0.0035
143768,21.360931,-158.089554,0.003
143769,21.378082,-158.089111,0.0007
143770,21.395241,-158.088669,0.0003
143774,21.463898,-158.086914,0.0004
143775,21.481064,-158.086472,0.0045
143776,21.49823,-158.086029,0.0048
143777,21.515404,-158.085587,0.0026
143778,21.53257,-158.085144,0.002
143779,21.549744,-158.084701,0.0039
143780,21.566925,-158.084259,0.0046
143781,21.584099,-158.083817,0.0042
143782,21.601288,-158.083374,0.0047
143783,21.618462,-158.082932,0.0027
144278,21.291908,-158.072906,0.0004
144279,21.309059,-158.072464,0.0047
144280,21.32621,-158.072022,0.0047
144281,21.343361,-158.071579,0.0047
144282,21.360519,-158.071121,0.0019
144283,21.37767,-158.070679,0.0013
144284,21.394821,-158.070236,0.002
144285,21.411995,-158.069794,0.0032
144286,21.429153,-158.069351,0.0037
144287,21.44632,-158.068909,0.004
144288,21.463478,-158.068466,0.0028
144289,21.480652,-158.068024,0.0046
144290,21.49781,-158.067566,0.0046
144291,21.514984,-158.067123,0.004
144292,21.532143,-158.066681,0.004
144293,21.549324,-158.066238,0.0047
144294,21.566505,-158.065781,0.0042
144295,21.583687,-158.065338,0.0029
144296,21.600861,-158.064896,0.0048
144297,21.61805,-158.064453,0.0047
144298,21.635231,-158.063995,0.0024
144299,21.65242,-158.063553,0.001
144794,21.308647,-158.054047,0.0036
144795,21.32579,-158.053604,0.0047
144796,21.342957,-158.053162,0.0046
144797,21.3601,-158.052704,0.0047
144798,21.377258,-158.052261,0.0047
144799,21.394417,-158.051819,0.0047
144800,21.411568,-158.051361,0.0047
144801,21.428741,-158.050919,0.0047
144802,21.445892,-158.050461,0.0047
144803,21.463074,-158.050018,0.0048
144804,21.480232,-158.049561,0.0048
144805,21.497398,-158.049118,0.0047
144806,21.514565,-158.04866,0.0048
144807,21.531746,-158.048218,0.0048
144808,21.548912,-158.04776,0.0042
144809,21.566101,-158.047317,0.0044
144810,21.583275,-158.04686,0.0026
144811,21.600464,-158.046417,0.0048
144812,21.61763,-158.04596,0.0042
144813,21.634819,-158.045517,0.0028
144814,21.652016,-158.045059,0.004
144815,21.669197,-158.044617,0.0009
145309,21.308228,-158.035644,0.0034
145310,21.325378,-158.035187,0.0047
145311,21.342529,-158.034744,0.0046
145312,21.35968,-158.034287,0.0043
145313,21.376831,-158.033829,0.0045
145314,21.39399,-158.033386,0.0047
145315,21.411148,-158.032928,0.0046
145316,21.428322,-158.032471,0.0045
145317,21.44548,-158.032028,0.0045
145318,21.462639,-158.03157,0.0047
145319,21.479805,-158.031113,0.0048
145320,21.496979,-158.03067,0.0048
145321,21.514145,-158.030212,0.0048
145322,21.531319,-158.029755,0.0048
145323,21.5485,-158.029297,0.0043
145324,21.565666,-158.028839,0.0044
145325,21.582855,-158.028397,0.0026
145326,21.600029,-158.027939,0.0047
145327,21.617218,-158.027481,0.0026
145328,21.634407,-158.027023,0.0028
145329,21.651588,-158.026566,0.0036
145330,21.668777,-158.026108,0.0031
145331,21.685966,-158.02565,0.0012
145825,21.3078,-158.017242,0.0024
145826,21.324951,-158.016785,0.0047
145827,21.342102,-158.016327,0.0047
145828,21.359261,-158.015869,0.002
145829,21.376411,-158.015411,0.0023
145830,21.39357,-158.014954,0.0042
145831,21.410728,-158.014496,0.0042
145832,21.427895,-158.014038,0.0047
145833,21.445061,-158.01358,0.0046
145834,21.462219,-158.013123,0.0047
145835,21.479385,-158.012665,0.0047
145836,21.496544,-158.012207,0.0048
145837,21.513733,-158.011749,0.0044
145838,21.530891,-158.011291,0.0048
145839,21.548073,-158.010834,0.0045
145840,21.565262,-158.010376,0.0031
145841,21.582413,-158.009918,0.0021
145842,21.599602,-158.00946,0.004
145843,21.616791,-158.009003,0.0034
145844,21.63398,-158.008545,0.0025
145845,21.651161,-158.008072,0.0024
145846,21.668343,-158.007614,0.0032
145847,21.685539,-158.007156,0.003
145848,21.702736,-158.006699,0.0003
146342,21.307381,-157.998825,0.0011
146343,21.324532,-157.998367,0.0047
146344,21.341682,-157.997909,0.0046
146345,21.358826,-157.997452,0.0023
146346,21.375992,-157.996994,0.0034
146347,21.393143,-157.996521,0.0043
146348,21.410309,-157.996063,0.0047
146349,21.42746,-157.995606,0.0047
146350,21.444633,-157.995148,0.0043
146351,21.4618,-157.994675,0.0044
146352,21.47895,-157.994217,0.0047
146353,21.496124,-157.993759,0.0048
146354,21.51329,-157.993301,0.0038
146355,21.530464,-157.992828,0.004
146356,21.547653,-157.992371,0.0035
146357,21.564819,-157.991913,0.0021
146358,21.582001,-157.99144,0.002
146359,21.599175,-157.990982,0.003
146360,21.616364,-157.990509,0.0014
146361,21.633553,-157.990051,0.002
146362,21.650734,-157.989594,0.0013
146363,21.667923,-157.989121,0.0031
146364,21.685112,-157.988663,0.0043
146365,21.702301,-157.98819,0.0013
146858,21.306938,-157.980423,0.0001
146859,21.324097,-157.979965,0.0038
146860,21.341248,-157.979492,0.0033
146861,21.358398,-157.979034,0.0032
146862,21.375557,-157.978561,0.0011
146863,21.392708,-157.978104,0.0031
146864,21.409866,-157.977631,0.0039
146865,21.427032,-157.977173,0.0045
146866,21.444199,-157.9767,0.0047
146867,21.461365,-157.976242,0.0035
146868,21.478539,-157.975769,0.0042
146869,21.495689,-157.975311,0.0035
146870,21.512863,-157.974838,0.0012
146871,21.530045,-157.974365,0.0014
146872,21.547211,-157.973907,0.0021
146873,21.564384,-157.973434,0.0026
146874,21.581566,-157.972961,0.0019
146875,21.598747,-157.972504,0.0015
146876,21.615929,-157.972031,0.0014
146877,21.633118,-157.971558,0.0005
146878,21.650284,-157.9711,0.0024
146879,21.667496,-157.970627,0.0036
146880,21.684669,-157.970154,0.0038
146881,21.701866,-157.969681,0.0001
147376,21.323654,-157.961548,0.0017
147377,21.340813,-157.961075,0.0038
147378,21.357956,-157.960617,0.0023
147379,21.375122,-157.960144,0.0008
147380,21.392273,-157.959671,0.0038
147381,21.409431,-157.959198,0.0046
147382,21.42659,-157.95874,0.0028
147383,21.443756,-157.958267,0.0033
147384,21.460922,-157.957794,0.0022
147385,21.478088,-157.957321,0.001
147386,21.495255,-157.956848,0.0004
147388,21.529594,-157.955902,0.0012
147389,21.546776,-157.955444,0.0022
147390,21.56395,-157.954971,0.0023
147391,21.581123,-157.954498,0.0008
147392,21.598312,-157.954025,0.0005
147393,21.615486,-157.953552,0.0007
147394,21.632668,-157.953079,0.002
147395,21.649857,-157.952606,0.0037
147396,21.667046,-157.952133,0.0036
147397,21.684242,-157.95166,0.001
147892,21.306076,-157.943619,0.0008
147893,21.323227,-157.943146,0.0041
147894,21.34037,-157.942673,0.0047
147895,21.357521,-157.9422,0.0028
147896,21.374672,-157.941727,0.0017
147897,21.391823,-157.941238,0.0041
147898,21.408997,-157.940765,0.0043
147899,21.426155,-157.940292,0.0022
147900,21.443321,-157.939819,0.0009
147905,21.529152,-157.937454,0.0009
147906,21.546333,-157.936966,0.002
147907,21.563515,-157.936493,0.001
147908,21.580681,-157.93602,0.0002
147909,21.597862,-157.935547,0.0002
147910,21.615044,-157.935074,0.0006
147911,21.632225,-157.934586,0.0028
147912,21.649414,-157.934112,0.0035
147913,21.666603,-157.933639,0.0013
147914,21.6838,-157.933151,0.0001
148410,21.305626,-157.925201,0.0012
148411,21.322769,-157.924728,0.0045
148412,21.339935,-157.924255,0.0047
148413,21.357086,-157.923767,0.0047
148414,21.374237,-157.923294,0.0046
148415,21.391403,-157.922821,0.0032
148416,21.408554,-157.922348,0.0018
148417,21.425713,-157.92186,0.0003
148423,21.528709,-157.918991,0.0002
148424,21.545891,-157.918503,0.0008
148425,21.563065,-157.91803,0.0002
148427,21.597412,-157.917068,0.0003
148428,21.614601,-157.91658,0.0014
148429,21.63179,-157.916107,0.0008
148430,21.648972,-157.915619,0.0002
148431,21.666161,-157.915146,0.0001
148927,21.305183,-157.906799,0.0003
148928,21.322327,-157.906326,0.0015
148929,21.339478,-157.905838,0.0042
148930,21.356644,-157.90535,0.0041
148931,21.373787,-157.904877,0.0033
148932,21.390945,-157.904388,0.0021
148933,21.408112,-157.903915,0.0002
148941,21.545441,-157.90004,0.0003
148942,21.562622,-157.899551,0.001
148943,21.579796,-157.899078,0.0009
148944,21.59697,-157.89859,0.0011
148945,21.614151,-157.898102,0.0001
149445,21.304733,-157.888397,0.001
149446,21.321884,-157.887909,0.0021
149447,21.339035,-157.887421,0.0028
149448,21.356194,-157.886932,0.0034
149449,21.373344,-157.886459,0.0013
149450,21.390503,-157.885971,0.0005
149458,21.527817,-157.882065,0.0015
149459,21.544983,-157.881576,0.0013
149460,21.562172,-157.881088,0.0001
149461,21.579338,-157.8806,0.0005
149963,21.28714,-157.870483,0.0002
149964,21.304276,-157.869995,0.0023
149965,21.321434,-157.869507,0.0045
149966,21.33857,-157.869019,0.0035
149967,21.355736,-157.868515,0.0013
149968,21.372887,-157.868027,0.0005
149970,21.407204,-157.86705,0.0002
149972,21.441521,-157.866074,0.0001
149973,21.458687,-157.86557,0.0004
149974,21.475853,-157.865082,0.0017
149975,21.493019,-157.864594,0.0031
149976,21.510185,-157.864105,0.0005
149977,21.527359,-157.863602,0.0005
150482,21.286667,-157.852081,0.0002
150483,21.303825,-157.851593,0.0037
150484,21.320969,-157.85109,0.0037
150485,21.33812,-157.850601,0.0012
150486,21.35527,-157.850098,0.0005
150487,21.372429,-157.849609,0.0002
150489,21.406746,-157.848618,0.0001
150491,21.441055,-157.847626,0.0013
150492,21.458229,-157.847138,0.0031
150493,21.475395,-157.846634,0.0013
150494,21.492554,-157.846146,0.0009
150495,21.509727,-157.845642,0.0012
150496,21.526894,-157.845138,0.0005
150497,21.544067,-157.84465,0.0001
151000,21.269073,-157.834183,0.0001
151001,21.286209,-157.833679,0.001
151002,21.303352,-157.833176,0.0037
151003,21.320503,-157.832687,0.001
151004,21.337654,-157.832184,0.0014
151005,21.354805,-157.83168,0.0002
151006,21.371963,-157.831192,0.0007
151008,21.406265,-157.830185,0.0002
151009,21.423439,-157.829681,0.0008
151010,21.440598,-157.829193,0.0033
151011,21.457756,-157.82869,0.0012
151014,21.50927,-157.827194,0.0001
151015,21.526428,-157.826691,0.0001
151518,21.251457,-157.816284,0.0003
151519,21.2686,-157.815781,0.0023
151520,21.285751,-157.815277,0.0032
151521,21.302887,-157.814774,0.0027
151522,21.320038,-157.81427,0.0009
151524,21.35434,-157.813263,0.0017
151526,21.388657,-157.812256,0.0018
151527,21.405815,-157.811752,0.0031
151528,21.422966,-157.811249,0.004
151529,21.440132,-157.810745,0.0013
151530,21.457291,-157.810242,0.0004
152038,21.250992,-157.797897,0.0006
152039,21.268127,-157.797394,0.0039
152040,21.285278,-157.796875,0.0034
152041,21.302429,-157.796371,0.0008
152042,21.319572,-157.795868,0.001
152043,21.336723,-157.795364,0.0002
152044,21.353874,-157.794846,0.0004
152045,21.371025,-157.794342,0.0014
152046,21.388184,-157.793838,0.0043
152047,21.405334,-157.793335,0.0042
152048,21.422508,-157.792816,0.0024
152049,21.439667,-157.792313,0.0001
152558,21.267662,-157.778992,0.0011
152559,21.284805,-157.778473,0.0018
152560,21.301956,-157.777969,0.0005
152561,21.319099,-157.777466,0.0004
152563,21.353394,-157.776443,0.0007
152564,21.370552,-157.775925,0.0025
152565,21.387711,-157.775406,0.001
152566,21.404861,-157.774902,0.0019
152567,21.422028,-157.774383,0.0002
152568,21.439186,-157.77388,0.001
152569,21.45636,-157.773361,0.0013
153078,21.267181,-157.76059,0.0002
153079,21.284317,-157.760086,0.001
153080,21.30146,-157.759567,0.0001
153082,21.33577,-157.75853,0.0001
153083,21.352921,-157.758026,0.0018
153084,21.370079,-157.757507,0.0029
153085,21.387222,-157.756989,0.0023
153086,21.404381,-157.75647,0.0021
153087,21.421539,-157.755951,0.003
153088,21.438698,-157.755432,0.0041
153089,21.455864,-157.754913,0.0025
153599,21.283844,-157.741684,0.001
153600,21.300995,-157.741165,0.0001
153602,21.335289,-157.740128,0.0023
153603,21.352432,-157.739609,0.002
153604,21.369583,-157.73909,0.0033
153605,21.386742,-157.738556,0.0043
153606,21.4039,-157.738037,0.0028
153607,21.421059,-157.737518,0.0011
153608,21.438217,-157.736999,0.002
153609,21.455383,-157.736481,0.0015
154119,21.283356,-157.723282,0.0009
154120,21.300507,-157.722763,0.0009
154121,21.31765,-157.722229,0.0002
154122,21.334793,-157.72171,0.0022
154123,21.351944,-157.721191,0.0034
154124,21.36911,-157.720657,0.0039
154125,21.386261,-157.720138,0.0026
154126,21.403419,-157.71962,0.0003
154129,21.454887,-157.718033,0.0003
154638,21.265732,-157.705414,0.0008
154639,21.282875,-157.70488,0.0028
154640,21.300018,-157.704361,0.0009
154641,21.317162,-157.703827,0.0003
154642,21.334312,-157.703308,0.0032
154643,21.351456,-157.702774,0.0012
154644,21.368614,-157.70224,0.0006
154645,21.385765,-157.701721,0.0004
155159,21.265236,-157.687012,0.0005
155160,21.282379,-157.686493,0.0011
155161,21.299515,-157.685959,0.0022
155162,21.316673,-157.685425,0.0004
155163,21.333817,-157.684891,0.0003
155680,21.281883,-157.668091,0.0004
155681,21.299026,-157.667557,0.0029
155682,21.31617,-157.667023,0.0002
156201,21.298531,-157.649155,0.0007
156202,21.315666,-157.648605,0.0002
